<?xml version="1.0"?>
<opencv_storage>
<stage3>
  <maxWeakCount>58</maxWeakCount>
  <stageThreshold>-1.1864042282104492e+00</stageThreshold>
  <weakClassifiers>
    <_>
      <internalNodes>
        0 -1 8491 -8.6846739053726196e-02</internalNodes>
      <leafValues>
        4.6666666865348816e-01 -1.3126294314861298e-01</leafValues></_>
    <_>
      <internalNodes>
        0 -1 54394 -1.4741759747266769e-02</internalNodes>
      <leafValues>
        3.0026462674140930e-01 -9.6341013908386230e-02</leafValues></_>
    <_>
      <internalNodes>
        0 -1 64349 7.7429534867405891e-03</internalNodes>
      <leafValues>
        -1.3250559568405151e-01 3.1059151887893677e-01</leafValues></_>
    <_>
      <internalNodes>
        0 -1 137007 -2.0431891083717346e-02</internalNodes>
      <leafValues>
        2.3644384741783142e-01 -1.5141773223876953e-01</leafValues></_>
    <_>
      <internalNodes>
        0 -1 61219 -3.0579996109008789e-01</internalNodes>
      <leafValues>
        4.1477456688880920e-01 -7.0582583546638489e-02</leafValues></_>
    <_>
      <internalNodes>
        0 -1 104014 7.0021889405325055e-04</internalNodes>
      <leafValues>
        -1.1711846292018890e-01 2.7170780301094055e-01</leafValues></_>
    <_>
      <internalNodes>
        0 -1 1182 -8.5794850019738078e-04</internalNodes>
      <leafValues>
        -3.7003478407859802e-01 8.1024579703807831e-02</leafValues></_>
    <_>
      <internalNodes>
        0 -1 138087 -1.2026936747133732e-03</internalNodes>
      <leafValues>
        3.0880650877952576e-01 -9.7681201994419098e-02</leafValues></_>
    <_>
      <internalNodes>
        0 -1 1182 6.6304195206612349e-04</internalNodes>
      <leafValues>
        1.2463410198688507e-01 -3.0544465780258179e-01</leafValues></_>
    <_>
      <internalNodes>
        0 -1 119084 1.8366539850831032e-02</internalNodes>
      <leafValues>
        -9.8434612154960632e-02 4.0530997514724731e-01</leafValues></_>
    <_>
      <internalNodes>
        0 -1 104029 -2.6865140534937382e-03</internalNodes>
      <leafValues>
        2.7954125404357910e-01 -1.0161685198545456e-01</leafValues></_>
    <_>
      <internalNodes>
        0 -1 12531 -2.3399299243465066e-04</internalNodes>
      <leafValues>
        -2.4040734767913818e-01 1.2340910732746124e-01</leafValues></_>
    <_>
      <internalNodes>
        0 -1 81106 4.3206907808780670e-02</internalNodes>
      <leafValues>
        -6.6019117832183838e-02 3.4838384389877319e-01</leafValues></_>
    <_>
      <internalNodes>
        0 -1 138563 3.0933823436498642e-03</internalNodes>
      <leafValues>
        -1.4398454129695892e-01 2.1213813126087189e-01</leafValues></_>
    <_>
      <internalNodes>
        0 -1 12001 -2.5935551151633263e-02</internalNodes>
      <leafValues>
        3.4336939454078674e-01 -1.0038746148347855e-01</leafValues></_>
    <_>
      <internalNodes>
        0 -1 108368 3.2352022826671600e-02</internalNodes>
      <leafValues>
        -5.9790167957544327e-02 3.7438273429870605e-01</leafValues></_>
    <_>
      <internalNodes>
        0 -1 124688 2.6344791986048222e-03</internalNodes>
      <leafValues>
        -9.7313001751899719e-02 3.1104165315628052e-01</leafValues></_>
    <_>
      <internalNodes>
        0 -1 159616 -1.6713056247681379e-03</internalNodes>
      <leafValues>
        -4.2757624387741089e-01 7.7408775687217712e-02</leafValues></_>
    <_>
      <internalNodes>
        0 -1 133775 -7.4496900197118521e-04</internalNodes>
      <leafValues>
        1.7756505310535431e-01 -1.5226519107818604e-01</leafValues></_>
    <_>
      <internalNodes>
        0 -1 158217 -6.5100390929728746e-04</internalNodes>
      <leafValues>
        -2.5624734163284302e-01 1.3209393620491028e-01</leafValues></_>
    <_>
      <internalNodes>
        0 -1 152871 5.6319218128919601e-03</internalNodes>
      <leafValues>
        2.8693845495581627e-02 -5.8560866117477417e-01</leafValues></_>
    <_>
      <internalNodes>
        0 -1 104016 5.2444508764892817e-04</internalNodes>
      <leafValues>
        -1.0454711318016052e-01 2.7396011352539063e-01</leafValues></_>
    <_>
      <internalNodes>
        0 -1 118775 1.1482144473120570e-03</internalNodes>
      <leafValues>
        -1.2171077728271484e-01 2.1079565584659576e-01</leafValues></_>
    <_>
      <internalNodes>
        0 -1 131166 -1.1924542486667633e-02</internalNodes>
      <leafValues>
        -7.0715200901031494e-01 4.0445938706398010e-02</leafValues></_>
    <_>
      <internalNodes>
        0 -1 10598 -5.5187119869515300e-04</internalNodes>
      <leafValues>
        -2.7038642764091492e-01 8.8192887604236603e-02</leafValues></_>
    <_>
      <internalNodes>
        0 -1 114851 1.1175272986292839e-02</internalNodes>
      <leafValues>
        -1.4362993836402893e-01 1.8961445987224579e-01</leafValues></_>
    <_>
      <internalNodes>
        0 -1 13330 -2.4192851036787033e-02</internalNodes>
      <leafValues>
        -5.0508838891983032e-01 6.0246393084526062e-02</leafValues></_>
    <_>
      <internalNodes>
        0 -1 43067 -4.5815669000148773e-03</internalNodes>
      <leafValues>
        2.4873088300228119e-01 -1.1452904343605042e-01</leafValues></_>
    <_>
      <internalNodes>
        0 -1 26206 -1.5623839572072029e-02</internalNodes>
      <leafValues>
        -5.0643259286880493e-01 6.3192673027515411e-02</leafValues></_>
    <_>
      <internalNodes>
        0 -1 121146 1.4140602615952957e-05</internalNodes>
      <leafValues>
        -1.5695616602897644e-01 1.7024332284927368e-01</leafValues></_>
    <_>
      <internalNodes>
        0 -1 117388 1.3683082535862923e-02</internalNodes>
      <leafValues>
        4.0202330797910690e-02 -6.9533270597457886e-01</leafValues></_>
    <_>
      <internalNodes>
        0 -1 54990 2.3333926219493151e-03</internalNodes>
      <leafValues>
        -1.2533427774906158e-01 2.1204382181167603e-01</leafValues></_>
    <_>
      <internalNodes>
        0 -1 6314 7.4999295175075531e-03</internalNodes>
      <leafValues>
        4.9210481345653534e-02 -5.5307561159133911e-01</leafValues></_>
    <_>
      <internalNodes>
        0 -1 49685 -8.7095551192760468e-02</internalNodes>
      <leafValues>
        -6.0441339015960693e-01 3.7038143724203110e-02</leafValues></_>
    <_>
      <internalNodes>
        0 -1 4175 -8.9617017656564713e-03</internalNodes>
      <leafValues>
        2.8244575858116150e-01 -9.2708446085453033e-02</leafValues></_>
    <_>
      <internalNodes>
        0 -1 403 -2.3315874859690666e-03</internalNodes>
      <leafValues>
        -3.3865895867347717e-01 7.3126614093780518e-02</leafValues></_>
    <_>
      <internalNodes>
        0 -1 125761 2.1173327695578337e-03</internalNodes>
      <leafValues>
        -1.2760263681411743e-01 2.0774187147617340e-01</leafValues></_>
    <_>
      <internalNodes>
        0 -1 120144 1.3835646212100983e-02</internalNodes>
      <leafValues>
        -5.4302811622619629e-02 4.3907991051673889e-01</leafValues></_>
    <_>
      <internalNodes>
        0 -1 123840 7.3422706918790936e-04</internalNodes>
      <leafValues>
        -7.3383390903472900e-02 3.2902899384498596e-01</leafValues></_>
    <_>
      <internalNodes>
        0 -1 161313 -3.4627038985490799e-04</internalNodes>
      <leafValues>
        -2.7305448055267334e-01 1.0148302465677261e-01</leafValues></_>
    <_>
      <internalNodes>
        0 -1 119162 -5.2021984010934830e-03</internalNodes>
      <leafValues>
        2.2438992559909821e-01 -1.1565132439136505e-01</leafValues></_>
    <_>
      <internalNodes>
        0 -1 150114 2.1575730293989182e-02</internalNodes>
      <leafValues>
        -4.4193591922521591e-02 5.4981511831283569e-01</leafValues></_>
    <_>
      <internalNodes>
        0 -1 126071 9.0573885245248675e-04</internalNodes>
      <leafValues>
        -1.0285367816686630e-01 2.4583823978900909e-01</leafValues></_>
    <_>
      <internalNodes>
        0 -1 130653 9.6694834064692259e-04</internalNodes>
      <leafValues>
        -1.3802309334278107e-01 1.8524752557277679e-01</leafValues></_>
    <_>
      <internalNodes>
        0 -1 49399 -7.3106441413983703e-04</internalNodes>
      <leafValues>
        -2.8970062732696533e-01 9.8689921200275421e-02</leafValues></_>
    <_>
      <internalNodes>
        0 -1 149483 -1.2269252911210060e-02</internalNodes>
      <leafValues>
        4.0186721086502075e-01 -7.0572152733802795e-02</leafValues></_>
    <_>
      <internalNodes>
        0 -1 86273 -1.0520226787775755e-03</internalNodes>
      <leafValues>
        3.7587735056877136e-01 -6.4695447683334351e-02</leafValues></_>
    <_>
      <internalNodes>
        0 -1 157471 4.3811360374093056e-03</internalNodes>
      <leafValues>
        3.9725229144096375e-02 -7.2741812467575073e-01</leafValues></_>
    <_>
      <internalNodes>
        0 -1 144271 2.4459229782223701e-02</internalNodes>
      <leafValues>
        -7.8617796301841736e-02 3.1907686591148376e-01</leafValues></_>
    <_>
      <internalNodes>
        0 -1 9831 -1.2893998995423317e-02</internalNodes>
      <leafValues>
        -7.3677700757980347e-01 3.6339115351438522e-02</leafValues></_>
    <_>
      <internalNodes>
        0 -1 162139 -1.1082326527684927e-03</internalNodes>
      <leafValues>
        -4.2682313919067383e-01 5.1851935684680939e-02</leafValues></_>
    <_>
      <internalNodes>
        0 -1 105081 1.6004138160496950e-03</internalNodes>
      <leafValues>
        -7.6074622571468353e-02 3.4621059894561768e-01</leafValues></_>
    <_>
      <internalNodes>
        0 -1 105400 1.9327918998897076e-03</internalNodes>
      <leafValues>
        -9.6237771213054657e-02 2.3996098339557648e-01</leafValues></_>
    <_>
      <internalNodes>
        0 -1 97273 -2.3351281881332397e-02</internalNodes>
      <leafValues>
        3.3672621846199036e-01 -7.7457793056964874e-02</leafValues></_>
    <_>
      <internalNodes>
        0 -1 161241 -2.2043967619538307e-03</internalNodes>
      <leafValues>
        -4.9270758032798767e-01 5.1762189716100693e-02</leafValues></_>
    <_>
      <internalNodes>
        0 -1 160541 -5.2025617333129048e-04</internalNodes>
      <leafValues>
        2.0925411581993103e-01 -1.1384710669517517e-01</leafValues></_>
    <_>
      <internalNodes>
        0 -1 18982 -1.8748191650956869e-03</internalNodes>
      <leafValues>
        -2.9724735021591187e-01 8.7634392082691193e-02</leafValues></_>
    <_>
      <internalNodes>
        0 -1 68121 -6.1546894721686840e-04</internalNodes>
      <leafValues>
        2.8449767827987671e-01 -8.9173980057239532e-02</leafValues></_></weakClassifiers></stage3>
</opencv_storage>
