<?xml version="1.0"?>
<opencv_storage>
<stage1>
  <maxWeakCount>24</maxWeakCount>
  <stageThreshold>-1.0385904312133789e+00</stageThreshold>
  <weakClassifiers>
    <_>
      <internalNodes>
        0 -1 852 -2.1519806981086731e-01</internalNodes>
      <leafValues>
        -7.1613830327987671e-01 1.8641780316829681e-01</leafValues></_>
    <_>
      <internalNodes>
        0 -1 82052 -1.5342241525650024e-01</internalNodes>
      <leafValues>
        5.4284042119979858e-01 -1.6953985393047333e-01</leafValues></_>
    <_>
      <internalNodes>
        0 -1 11794 -2.9222655296325684e-01</internalNodes>
      <leafValues>
        -9.6931105852127075e-01 6.6894292831420898e-02</leafValues></_>
    <_>
      <internalNodes>
        0 -1 10203 3.2562658190727234e-02</internalNodes>
      <leafValues>
        -1.6707557439804077e-01 2.9336529970169067e-01</leafValues></_>
    <_>
      <internalNodes>
        0 -1 18998 -1.3181935995817184e-02</internalNodes>
      <leafValues>
        2.9750046133995056e-01 -1.5381942689418793e-01</leafValues></_>
    <_>
      <internalNodes>
        0 -1 27686 -4.6183019876480103e-03</internalNodes>
      <leafValues>
        -3.4996518492698669e-01 1.5790370106697083e-01</leafValues></_>
    <_>
      <internalNodes>
        0 -1 126402 6.5009109675884247e-03</internalNodes>
      <leafValues>
        -1.4775945246219635e-01 3.6764532327651978e-01</leafValues></_>
    <_>
      <internalNodes>
        0 -1 125752 1.0184869170188904e-03</internalNodes>
      <leafValues>
        -7.0715658366680145e-02 4.4607293605804443e-01</leafValues></_>
    <_>
      <internalNodes>
        0 -1 10209 -6.4989239908754826e-03</internalNodes>
      <leafValues>
        -8.1759917736053467e-01 4.9766734242439270e-02</leafValues></_>
    <_>
      <internalNodes>
        0 -1 44820 2.2351042926311493e-01</internalNodes>
      <leafValues>
        5.7617895305156708e-02 -5.4832977056503296e-01</leafValues></_>
    <_>
      <internalNodes>
        0 -1 125748 1.7332489369437099e-04</internalNodes>
      <leafValues>
        -1.7085228860378265e-01 2.4696476757526398e-01</leafValues></_>
    <_>
      <internalNodes>
        0 -1 320 -5.3946012631058693e-03</internalNodes>
      <leafValues>
        -4.4726336002349854e-01 8.6028091609477997e-02</leafValues></_>
    <_>
      <internalNodes>
        0 -1 114518 7.1681048721075058e-03</internalNodes>
      <leafValues>
        -1.5742655098438263e-01 2.6002693176269531e-01</leafValues></_>
    <_>
      <internalNodes>
        0 -1 85457 -3.6955915391445160e-02</internalNodes>
      <leafValues>
        4.5455554127693176e-01 -8.9975588023662567e-02</leafValues></_>
    <_>
      <internalNodes>
        0 -1 59952 -1.4840034767985344e-02</internalNodes>
      <leafValues>
        -6.4052832126617432e-01 6.9012850522994995e-02</leafValues></_>
    <_>
      <internalNodes>
        0 -1 3079 1.8917709589004517e-02</internalNodes>
      <leafValues>
        3.3641260117292404e-02 -7.6375794410705566e-01</leafValues></_>
    <_>
      <internalNodes>
        0 -1 2277 -3.9434590144082904e-04</internalNodes>
      <leafValues>
        -2.8091952204704285e-01 1.2502323091030121e-01</leafValues></_>
    <_>
      <internalNodes>
        0 -1 87158 8.0394867109134793e-04</internalNodes>
      <leafValues>
        -1.4389236271381378e-01 2.5163519382476807e-01</leafValues></_>
    <_>
      <internalNodes>
        0 -1 18337 4.2500153183937073e-02</internalNodes>
      <leafValues>
        -4.4733922928571701e-02 7.0772653818130493e-01</leafValues></_>
    <_>
      <internalNodes>
        0 -1 3202 -1.2277376372367144e-03</internalNodes>
      <leafValues>
        -4.6621298789978027e-01 8.9259974658489227e-02</leafValues></_>
    <_>
      <internalNodes>
        0 -1 154247 1.1812600860139355e-05</internalNodes>
      <leafValues>
        -1.7231163382530212e-01 1.9363030791282654e-01</leafValues></_>
    <_>
      <internalNodes>
        0 -1 83551 -2.9531814157962799e-02</internalNodes>
      <leafValues>
        6.3256293535232544e-01 -4.5935489237308502e-02</leafValues></_>
    <_>
      <internalNodes>
        0 -1 59535 -7.2810100391507149e-04</internalNodes>
      <leafValues>
        -2.7799627184867859e-01 1.2331167608499527e-01</leafValues></_>
    <_>
      <internalNodes>
        0 -1 124733 1.3208922464400530e-03</internalNodes>
      <leafValues>
        -1.2728971242904663e-01 2.9919037222862244e-01</leafValues></_></weakClassifiers></stage1>
</opencv_storage>
