<?xml version="1.0"?>
<opencv_storage>
<stage9>
  <maxWeakCount>84</maxWeakCount>
  <stageThreshold>-1.0258991718292236e+00</stageThreshold>
  <weakClassifiers>
    <_>
      <internalNodes>
        0 -1 125674 1.4813998341560364e-01</internalNodes>
      <leafValues>
        -9.7071804106235504e-02 3.7573614716529846e-01</leafValues></_>
    <_>
      <internalNodes>
        0 -1 13647 2.2881408222019672e-03</internalNodes>
      <leafValues>
        -1.2268850952386856e-01 1.6393907368183136e-01</leafValues></_>
    <_>
      <internalNodes>
        0 -1 136399 -3.6930676549673080e-02</internalNodes>
      <leafValues>
        1.8633513152599335e-01 -1.1600224673748016e-01</leafValues></_>
    <_>
      <internalNodes>
        0 -1 5320 -1.6480570193380117e-03</internalNodes>
      <leafValues>
        1.5492206811904907e-01 -1.3332717120647430e-01</leafValues></_>
    <_>
      <internalNodes>
        0 -1 8410 -1.1359892785549164e-01</internalNodes>
      <leafValues>
        4.3366816639900208e-01 -2.9656002297997475e-02</leafValues></_>
    <_>
      <internalNodes>
        0 -1 88396 1.4803010271862149e-03</internalNodes>
      <leafValues>
        -1.1770357936620712e-01 1.7518362402915955e-01</leafValues></_>
    <_>
      <internalNodes>
        0 -1 79158 -2.2713830694556236e-03</internalNodes>
      <leafValues>
        3.0868878960609436e-01 -3.6376122385263443e-02</leafValues></_>
    <_>
      <internalNodes>
        0 -1 43128 1.2050205841660500e-03</internalNodes>
      <leafValues>
        -1.8060578405857086e-01 9.7462192177772522e-02</leafValues></_>
    <_>
      <internalNodes>
        0 -1 93122 -2.0784004591405392e-03</internalNodes>
      <leafValues>
        2.3676629364490509e-01 -6.4987279474735260e-02</leafValues></_>
    <_>
      <internalNodes>
        0 -1 83093 2.1152645349502563e-02</internalNodes>
      <leafValues>
        2.7976868674159050e-02 -5.9556812047958374e-01</leafValues></_>
    <_>
      <internalNodes>
        0 -1 153608 2.0082971605006605e-04</internalNodes>
      <leafValues>
        -1.0599146038293839e-01 1.5667442977428436e-01</leafValues></_>
    <_>
      <internalNodes>
        0 -1 88823 -7.0752901956439018e-03</internalNodes>
      <leafValues>
        -5.1639366149902344e-01 4.2672194540500641e-02</leafValues></_>
    <_>
      <internalNodes>
        0 -1 80124 4.5772962039336562e-04</internalNodes>
      <leafValues>
        -1.2989704310894012e-01 1.4462506771087646e-01</leafValues></_>
    <_>
      <internalNodes>
        0 -1 4175 -9.1019663959741592e-03</internalNodes>
      <leafValues>
        2.5326430797576904e-01 -4.5949086546897888e-02</leafValues></_>
    <_>
      <internalNodes>
        0 -1 32088 -1.9698143005371094e-02</internalNodes>
      <leafValues>
        -5.1879930496215820e-01 2.1845791488885880e-02</leafValues></_>
    <_>
      <internalNodes>
        0 -1 81510 7.3145725764334202e-05</internalNodes>
      <leafValues>
        9.7374983131885529e-02 -1.7132636904716492e-01</leafValues></_>
    <_>
      <internalNodes>
        0 -1 120567 -3.2322560437023640e-03</internalNodes>
      <leafValues>
        -9.4569528102874756e-01 2.8039034805260599e-04</leafValues></_>
    <_>
      <internalNodes>
        0 -1 36577 -6.0372252017259598e-02</internalNodes>
      <leafValues>
        2.8023970127105713e-01 -5.8348067104816437e-02</leafValues></_>
    <_>
      <internalNodes>
        0 -1 75916 -1.4354324340820313e-01</internalNodes>
      <leafValues>
        4.8023107647895813e-01 -2.6778927072882652e-02</leafValues></_>
    <_>
      <internalNodes>
        0 -1 133151 -4.1598302777856588e-04</internalNodes>
      <leafValues>
        1.4934942126274109e-01 -1.3562880456447601e-01</leafValues></_>
    <_>
      <internalNodes>
        0 -1 124861 -3.7183590233325958e-02</internalNodes>
      <leafValues>
        2.6792350411415100e-01 -5.1161091774702072e-02</leafValues></_>
    <_>
      <internalNodes>
        0 -1 142010 -3.0444152653217316e-02</internalNodes>
      <leafValues>
        -5.6014806032180786e-01 2.6611106470227242e-02</leafValues></_>
    <_>
      <internalNodes>
        0 -1 99960 9.3663558363914490e-03</internalNodes>
      <leafValues>
        -4.6126667410135269e-02 3.2095885276794434e-01</leafValues></_>
    <_>
      <internalNodes>
        0 -1 11198 2.8876317664980888e-03</internalNodes>
      <leafValues>
        4.5349434018135071e-02 -3.2525184750556946e-01</leafValues></_>
    <_>
      <internalNodes>
        0 -1 118663 2.7200123295187950e-03</internalNodes>
      <leafValues>
        -8.4190145134925842e-02 1.8058766424655914e-01</leafValues></_>
    <_>
      <internalNodes>
        0 -1 37450 -6.5476058807689697e-05</internalNodes>
      <leafValues>
        1.4075507223606110e-01 -1.1167447268962860e-01</leafValues></_>
    <_>
      <internalNodes>
        0 -1 86680 -8.5061132907867432e-02</internalNodes>
      <leafValues>
        5.2676755189895630e-01 -2.9662951827049255e-02</leafValues></_>
    <_>
      <internalNodes>
        0 -1 2136 4.8901657573878765e-03</internalNodes>
      <leafValues>
        3.5871602594852448e-02 -5.1267975568771362e-01</leafValues></_>
    <_>
      <internalNodes>
        0 -1 124481 1.1230552196502686e-01</internalNodes>
      <leafValues>
        9.0393600985407829e-03 -1.</leafValues></_>
    <_>
      <internalNodes>
        0 -1 16851 -1.8152269721031189e-01</internalNodes>
      <leafValues>
        -1. 1.3929987326264381e-02</leafValues></_>
    <_>
      <internalNodes>
        0 -1 160746 5.7683787308633327e-03</internalNodes>
      <leafValues>
        1.9655110314488411e-02 -6.2710964679718018e-01</leafValues></_>
    <_>
      <internalNodes>
        0 -1 158754 -6.0957379173487425e-04</internalNodes>
      <leafValues>
        1.9296632707118988e-01 -8.1409059464931488e-02</leafValues></_>
    <_>
      <internalNodes>
        0 -1 60421 1.6803839243948460e-03</internalNodes>
      <leafValues>
        3.2977692782878876e-02 -4.8435118794441223e-01</leafValues></_>
    <_>
      <internalNodes>
        0 -1 65779 6.4357137307524681e-03</internalNodes>
      <leafValues>
        -8.2233428955078125e-02 2.0494645833969116e-01</leafValues></_>
    <_>
      <internalNodes>
        0 -1 152488 -2.6327975094318390e-02</internalNodes>
      <leafValues>
        -7.9669243097305298e-01 2.0353535190224648e-02</leafValues></_>
    <_>
      <internalNodes>
        0 -1 11521 -7.3837507516145706e-03</internalNodes>
      <leafValues>
        -3.8513338565826416e-01 4.1959192603826523e-02</leafValues></_>
    <_>
      <internalNodes>
        0 -1 11947 4.1727676987648010e-02</internalNodes>
      <leafValues>
        -3.2481495290994644e-02 5.4166644811630249e-01</leafValues></_>
    <_>
      <internalNodes>
        0 -1 146990 -1.3939936645328999e-02</internalNodes>
      <leafValues>
        1.5374632179737091e-01 -9.3269139528274536e-02</leafValues></_>
    <_>
      <internalNodes>
        0 -1 29528 -3.8811261765658855e-04</internalNodes>
      <leafValues>
        -1.8900911509990692e-01 8.2462094724178314e-02</leafValues></_>
    <_>
      <internalNodes>
        0 -1 95980 -1.7488917335867882e-02</internalNodes>
      <leafValues>
        -6.0658365488052368e-01 2.6716126129031181e-02</leafValues></_>
    <_>
      <internalNodes>
        0 -1 55542 7.7260617399588227e-04</internalNodes>
      <leafValues>
        -7.3055379092693329e-02 2.2770960628986359e-01</leafValues></_>
    <_>
      <internalNodes>
        0 -1 31127 2.3764306679368019e-03</internalNodes>
      <leafValues>
        5.7932015508413315e-02 -2.6988413929939270e-01</leafValues></_>
    <_>
      <internalNodes>
        0 -1 35736 5.1971875131130219e-02</internalNodes>
      <leafValues>
        6.2748566269874573e-02 -2.5153952836990356e-01</leafValues></_>
    <_>
      <internalNodes>
        0 -1 97403 8.7261589942499995e-04</internalNodes>
      <leafValues>
        -1.0375957190990448e-01 1.6088324785232544e-01</leafValues></_>
    <_>
      <internalNodes>
        0 -1 49157 2.3184237070381641e-03</internalNodes>
      <leafValues>
        3.2395713031291962e-02 -4.5373943448066711e-01</leafValues></_>
    <_>
      <internalNodes>
        0 -1 105893 2.7476911782287061e-05</internalNodes>
      <leafValues>
        -1.1959196627140045e-01 1.2050220370292664e-01</leafValues></_>
    <_>
      <internalNodes>
        0 -1 106116 -9.9157507065683603e-04</internalNodes>
      <leafValues>
        1.5984928607940674e-01 -9.5401026308536530e-02</leafValues></_>
    <_>
      <internalNodes>
        0 -1 114362 1.1979970149695873e-03</internalNodes>
      <leafValues>
        5.4146435111761093e-02 -3.3730471134185791e-01</leafValues></_>
    <_>
      <internalNodes>
        0 -1 37862 -1.5641244128346443e-02</internalNodes>
      <leafValues>
        -8.6848998069763184e-01 1.3543768785893917e-02</leafValues></_>
    <_>
      <internalNodes>
        0 -1 58124 -8.4698916180059314e-04</internalNodes>
      <leafValues>
        2.7651762962341309e-01 -5.8303568512201309e-02</leafValues></_>
    <_>
      <internalNodes>
        0 -1 138717 1.0549159924266860e-04</internalNodes>
      <leafValues>
        -1.1370573192834854e-01 1.3399486243724823e-01</leafValues></_>
    <_>
      <internalNodes>
        0 -1 107149 -1.5521988272666931e-01</internalNodes>
      <leafValues>
        5.5088728666305542e-01 -2.2743945941329002e-02</leafValues></_>
    <_>
      <internalNodes>
        0 -1 114888 8.2769524306058884e-03</internalNodes>
      <leafValues>
        -8.8529288768768311e-02 1.6647198796272278e-01</leafValues></_>
    <_>
      <internalNodes>
        0 -1 122300 -3.7144200177863240e-04</internalNodes>
      <leafValues>
        1.5859059989452362e-01 -1.0002391040325165e-01</leafValues></_>
    <_>
      <internalNodes>
        0 -1 154493 -6.4068630337715149e-02</internalNodes>
      <leafValues>
        4.4931647181510925e-01 -3.3664725720882416e-02</leafValues></_>
    <_>
      <internalNodes>
        0 -1 133764 4.5304782688617706e-03</internalNodes>
      <leafValues>
        -4.1142906993627548e-02 3.2395476102828979e-01</leafValues></_>
    <_>
      <internalNodes>
        0 -1 128473 4.8770820721983910e-03</internalNodes>
      <leafValues>
        4.2879804968833923e-02 -4.1216251254081726e-01</leafValues></_>
    <_>
      <internalNodes>
        0 -1 132785 -3.7727737799286842e-04</internalNodes>
      <leafValues>
        1.5346787869930267e-01 -9.3710854649543762e-02</leafValues></_>
    <_>
      <internalNodes>
        0 -1 132621 2.7971941744908690e-04</internalNodes>
      <leafValues>
        -1.2302844971418381e-01 1.3084253668785095e-01</leafValues></_>
    <_>
      <internalNodes>
        0 -1 89682 -3.8972150650806725e-04</internalNodes>
      <leafValues>
        -2.3033247888088226e-01 5.9528816491365433e-02</leafValues></_>
    <_>
      <internalNodes>
        0 -1 124267 -1.1286560911685228e-03</internalNodes>
      <leafValues>
        1.9504825770854950e-01 -7.9685255885124207e-02</leafValues></_>
    <_>
      <internalNodes>
        0 -1 1437 1.5893191099166870e-01</internalNodes>
      <leafValues>
        -2.2615991532802582e-02 5.5808621644973755e-01</leafValues></_>
    <_>
      <internalNodes>
        0 -1 16462 3.9690665900707245e-02</internalNodes>
      <leafValues>
        5.3783290088176727e-02 -3.0162546038627625e-01</leafValues></_>
    <_>
      <internalNodes>
        0 -1 121029 7.6712965965270996e-03</internalNodes>
      <leafValues>
        -8.9667409658432007e-02 1.7834664881229401e-01</leafValues></_>
    <_>
      <internalNodes>
        0 -1 20526 -9.9600981920957565e-03</internalNodes>
      <leafValues>
        -1. 1.9093055278062820e-02</leafValues></_>
    <_>
      <internalNodes>
        0 -1 127286 3.4913196577690542e-04</internalNodes>
      <leafValues>
        -9.6843875944614410e-02 1.5841016173362732e-01</leafValues></_>
    <_>
      <internalNodes>
        0 -1 162288 -1.5853038057684898e-03</internalNodes>
      <leafValues>
        -6.1290878057479858e-01 2.5698270648717880e-02</leafValues></_>
    <_>
      <internalNodes>
        0 -1 125420 8.1986398436129093e-04</internalNodes>
      <leafValues>
        -1.0803984105587006e-01 1.5662179887294769e-01</leafValues></_>
    <_>
      <internalNodes>
        0 -1 103732 2.5073736906051636e-02</internalNodes>
      <leafValues>
        6.2437094748020172e-02 -2.4578279256820679e-01</leafValues></_>
    <_>
      <internalNodes>
        0 -1 124054 -3.6189612001180649e-02</internalNodes>
      <leafValues>
        2.2698020935058594e-01 -8.1318818032741547e-02</leafValues></_>
    <_>
      <internalNodes>
        0 -1 135944 3.6147959530353546e-02</internalNodes>
      <leafValues>
        4.2637370526790619e-02 -4.5885080099105835e-01</leafValues></_>
    <_>
      <internalNodes>
        0 -1 24737 -4.1266300831921399e-04</internalNodes>
      <leafValues>
        1.8112699687480927e-01 -9.6803389489650726e-02</leafValues></_>
    <_>
      <internalNodes>
        0 -1 11492 4.4766170904040337e-03</internalNodes>
      <leafValues>
        4.6165622770786285e-02 -4.7715556621551514e-01</leafValues></_>
    <_>
      <internalNodes>
        0 -1 859 -2.9028964042663574e-01</internalNodes>
      <leafValues>
        -3.6133822798728943e-01 4.4579923152923584e-02</leafValues></_>
    <_>
      <internalNodes>
        0 -1 46834 -2.3627196252346039e-01</internalNodes>
      <leafValues>
        7.4499225616455078e-01 -2.4515381082892418e-02</leafValues></_>
    <_>
      <internalNodes>
        0 -1 143972 -2.4186016526073217e-03</internalNodes>
      <leafValues>
        -4.2439600825309753e-01 3.7003397941589355e-02</leafValues></_>
    <_>
      <internalNodes>
        0 -1 120050 3.1525450758635998e-03</internalNodes>
      <leafValues>
        -1.0942932218313217e-01 1.4218960702419281e-01</leafValues></_>
    <_>
      <internalNodes>
        0 -1 6386 1.8403862416744232e-01</internalNodes>
      <leafValues>
        3.2369673252105713e-02 -5.3080159425735474e-01</leafValues></_>
    <_>
      <internalNodes>
        0 -1 34915 -4.1406573727726936e-03</internalNodes>
      <leafValues>
        3.0564671754837036e-01 -5.4954361170530319e-02</leafValues></_>
    <_>
      <internalNodes>
        0 -1 105862 -1.7516944557428360e-02</internalNodes>
      <leafValues>
        -3.1101250648498535e-01 5.7429797947406769e-02</leafValues></_>
    <_>
      <internalNodes>
        0 -1 104570 1.2634438462555408e-03</internalNodes>
      <leafValues>
        -1.2929214537143707e-01 1.2026658654212952e-01</leafValues></_>
    <_>
      <internalNodes>
        0 -1 94072 9.0056695044040680e-03</internalNodes>
      <leafValues>
        -1.1485339701175690e-01 1.3373725116252899e-01</leafValues></_>
    <_>
      <internalNodes>
        0 -1 98734 5.5181788047775626e-04</internalNodes>
      <leafValues>
        7.8081145882606506e-02 -2.0130521059036255e-01</leafValues></_>
    <_>
      <internalNodes>
        0 -1 158326 -1.9663657993078232e-02</internalNodes>
      <leafValues>
        -5.6033349037170410e-01 2.9265794903039932e-02</leafValues></_></weakClassifiers></stage9>
</opencv_storage>
