<?xml version="1.0"?>
<opencv_storage>
<stage13>
  <maxWeakCount>79</maxWeakCount>
  <stageThreshold>-8.4734445810317993e-01</stageThreshold>
  <weakClassifiers>
    <_>
      <internalNodes>
        0 -1 1039 -2.6123544573783875e-01</internalNodes>
      <leafValues>
        2.3190183937549591e-01 -1.2913198769092560e-01</leafValues></_>
    <_>
      <internalNodes>
        0 -1 105283 -2.3934114724397659e-02</internalNodes>
      <leafValues>
        3.4346267580986023e-01 -4.6435136348009109e-02</leafValues></_>
    <_>
      <internalNodes>
        0 -1 88745 -2.4538433179259300e-02</internalNodes>
      <leafValues>
        2.1554088592529297e-01 -9.1524757444858551e-02</leafValues></_>
    <_>
      <internalNodes>
        0 -1 31918 -2.9210030334070325e-04</internalNodes>
      <leafValues>
        -2.3578925430774689e-01 6.3572339713573456e-02</leafValues></_>
    <_>
      <internalNodes>
        0 -1 122252 -3.4971408545970917e-02</internalNodes>
      <leafValues>
        -5.4572522640228271e-01 6.7964509129524231e-02</leafValues></_>
    <_>
      <internalNodes>
        0 -1 90145 -9.7209094092249870e-03</internalNodes>
      <leafValues>
        7.5633382797241211e-01 -2.4746671319007874e-02</leafValues></_>
    <_>
      <internalNodes>
        0 -1 139305 9.2246886342763901e-03</internalNodes>
      <leafValues>
        -6.2556676566600800e-02 2.5261348485946655e-01</leafValues></_>
    <_>
      <internalNodes>
        0 -1 123257 5.2253559231758118e-02</internalNodes>
      <leafValues>
        -5.6861877441406250e-02 2.3542703688144684e-01</leafValues></_>
    <_>
      <internalNodes>
        0 -1 27566 -1.5336796641349792e-01</internalNodes>
      <leafValues>
        5.5061250925064087e-01 -3.3106569200754166e-02</leafValues></_>
    <_>
      <internalNodes>
        0 -1 118985 1.1697342852130532e-03</internalNodes>
      <leafValues>
        -9.4267025589942932e-02 1.6339056193828583e-01</leafValues></_>
    <_>
      <internalNodes>
        0 -1 5892 -3.2101757824420929e-05</internalNodes>
      <leafValues>
        -1.1248834431171417e-01 1.4932206273078918e-01</leafValues></_>
    <_>
      <internalNodes>
        0 -1 55593 1.0013037826865911e-03</internalNodes>
      <leafValues>
        -1.3443754613399506e-01 1.2841966748237610e-01</leafValues></_>
    <_>
      <internalNodes>
        0 -1 13472 9.3643111176788807e-04</internalNodes>
      <leafValues>
        1.0924984514713287e-01 -1.7242817580699921e-01</leafValues></_>
    <_>
      <internalNodes>
        0 -1 8236 4.7010658308863640e-03</internalNodes>
      <leafValues>
        -1.0896443575620651e-01 1.9135305285453796e-01</leafValues></_>
    <_>
      <internalNodes>
        0 -1 128083 -3.2754209823906422e-03</internalNodes>
      <leafValues>
        -1.5857788920402527e-01 9.8943389952182770e-02</leafValues></_>
    <_>
      <internalNodes>
        0 -1 2107 -3.9017587900161743e-01</internalNodes>
      <leafValues>
        -4.9579933285713196e-01 2.9073245823383331e-02</leafValues></_>
    <_>
      <internalNodes>
        0 -1 159841 -1.2690209587162826e-05</internalNodes>
      <leafValues>
        -1.2071257084608078e-01 1.2524795532226563e-01</leafValues></_>
    <_>
      <internalNodes>
        0 -1 157591 -1.5125458594411612e-03</internalNodes>
      <leafValues>
        2.5334346294403076e-01 -7.7754415571689606e-02</leafValues></_>
    <_>
      <internalNodes>
        0 -1 70427 5.0829187966883183e-04</internalNodes>
      <leafValues>
        1.0522321611642838e-01 -1.6744257509708405e-01</leafValues></_>
    <_>
      <internalNodes>
        0 -1 139200 -5.7977292453870177e-04</internalNodes>
      <leafValues>
        -3.0407339334487915e-01 5.0571307539939880e-02</leafValues></_>
    <_>
      <internalNodes>
        0 -1 154027 8.6335958912968636e-03</internalNodes>
      <leafValues>
        -6.3345059752464294e-02 2.1751825511455536e-01</leafValues></_>
    <_>
      <internalNodes>
        0 -1 157934 2.3978760465979576e-02</internalNodes>
      <leafValues>
        7.2727143764495850e-02 -2.0607005059719086e-01</leafValues></_>
    <_>
      <internalNodes>
        0 -1 59996 -7.8339893370866776e-03</internalNodes>
      <leafValues>
        -2.2922137379646301e-01 6.4419291913509369e-02</leafValues></_>
    <_>
      <internalNodes>
        0 -1 22693 -5.3577898070216179e-03</internalNodes>
      <leafValues>
        3.4691625833511353e-01 -3.8993306457996368e-02</leafValues></_>
    <_>
      <internalNodes>
        0 -1 151836 7.2898139478638768e-05</internalNodes>
      <leafValues>
        1.0692269355058670e-01 -1.3836090266704559e-01</leafValues></_>
    <_>
      <internalNodes>
        0 -1 132944 -2.9841170180588961e-04</internalNodes>
      <leafValues>
        1.6906236112117767e-01 -8.7919101119041443e-02</leafValues></_>
    <_>
      <internalNodes>
        0 -1 142010 -1.9032455980777740e-02</internalNodes>
      <leafValues>
        2.8462451696395874e-01 -5.5482618510723114e-02</leafValues></_>
    <_>
      <internalNodes>
        0 -1 146893 -2.4167299270629883e-03</internalNodes>
      <leafValues>
        -2.0247577130794525e-01 7.9827576875686646e-02</leafValues></_>
    <_>
      <internalNodes>
        0 -1 13068 -1.3364528305828571e-02</internalNodes>
      <leafValues>
        6.5805512666702271e-01 -2.9397672042250633e-02</leafValues></_>
    <_>
      <internalNodes>
        0 -1 161975 2.3549856268800795e-04</internalNodes>
      <leafValues>
        8.7329134345054626e-02 -1.7388941347599030e-01</leafValues></_>
    <_>
      <internalNodes>
        0 -1 96789 2.0449847215786576e-04</internalNodes>
      <leafValues>
        -9.8324678838253021e-02 1.4252619445323944e-01</leafValues></_>
    <_>
      <internalNodes>
        0 -1 96090 6.3375837635248899e-04</internalNodes>
      <leafValues>
        -9.0360008180141449e-02 1.6751775145530701e-01</leafValues></_>
    <_>
      <internalNodes>
        0 -1 73438 1.3016256690025330e-01</internalNodes>
      <leafValues>
        3.1453944742679596e-02 -4.5949673652648926e-01</leafValues></_>
    <_>
      <internalNodes>
        0 -1 67605 3.1709235627204180e-03</internalNodes>
      <leafValues>
        -8.5475355386734009e-02 1.7925485968589783e-01</leafValues></_>
    <_>
      <internalNodes>
        0 -1 161333 -1.5812288038432598e-03</internalNodes>
      <leafValues>
        -7.2602540254592896e-01 1.8690316006541252e-02</leafValues></_>
    <_>
      <internalNodes>
        0 -1 119319 2.2960685193538666e-02</internalNodes>
      <leafValues>
        1.5151611529290676e-02 -8.5579746961593628e-01</leafValues></_>
    <_>
      <internalNodes>
        0 -1 45993 -1.2349984899628907e-05</internalNodes>
      <leafValues>
        1.1430194228887558e-01 -1.3983343541622162e-01</leafValues></_>
    <_>
      <internalNodes>
        0 -1 320 2.0825769752264023e-02</internalNodes>
      <leafValues>
        2.1495355293154716e-02 -8.9032173156738281e-01</leafValues></_>
    <_>
      <internalNodes>
        0 -1 78607 5.3784542251378298e-04</internalNodes>
      <leafValues>
        -1.1010761559009552e-01 1.3197821378707886e-01</leafValues></_>
    <_>
      <internalNodes>
        0 -1 4987 -1.9968360720667988e-04</internalNodes>
      <leafValues>
        -1.8060900270938873e-01 8.1582710146903992e-02</leafValues></_>
    <_>
      <internalNodes>
        0 -1 138292 5.0461664795875549e-03</internalNodes>
      <leafValues>
        -5.3847908973693848e-02 2.7064290642738342e-01</leafValues></_>
    <_>
      <internalNodes>
        0 -1 105467 1.7413923051208258e-03</internalNodes>
      <leafValues>
        -8.4426440298557281e-02 1.7203015089035034e-01</leafValues></_>
    <_>
      <internalNodes>
        0 -1 120160 5.4471548646688461e-03</internalNodes>
      <leafValues>
        2.7948381379246712e-02 -5.8605700731277466e-01</leafValues></_>
    <_>
      <internalNodes>
        0 -1 111822 3.1209359876811504e-03</internalNodes>
      <leafValues>
        -6.6742606461048126e-02 2.2978910803794861e-01</leafValues></_>
    <_>
      <internalNodes>
        0 -1 87700 4.3000211007893085e-03</internalNodes>
      <leafValues>
        5.9001006186008453e-02 -2.8569021821022034e-01</leafValues></_>
    <_>
      <internalNodes>
        0 -1 86657 -1.1515963077545166e-01</internalNodes>
      <leafValues>
        4.9209883809089661e-01 -2.9041545465588570e-02</leafValues></_>
    <_>
      <internalNodes>
        0 -1 160530 5.8103911578655243e-04</internalNodes>
      <leafValues>
        -1.1216589808464050e-01 1.2623549997806549e-01</leafValues></_>
    <_>
      <internalNodes>
        0 -1 61585 1.8383035203441978e-03</internalNodes>
      <leafValues>
        5.3294148296117783e-02 -2.8311705589294434e-01</leafValues></_>
    <_>
      <internalNodes>
        0 -1 6788 2.3775529116392136e-02</internalNodes>
      <leafValues>
        -6.1672903597354889e-02 2.7855691313743591e-01</leafValues></_>
    <_>
      <internalNodes>
        0 -1 10669 8.1534497439861298e-03</internalNodes>
      <leafValues>
        2.7371387928724289e-02 -7.1731013059616089e-01</leafValues></_>
    <_>
      <internalNodes>
        0 -1 142539 -1.4209797605872154e-02</internalNodes>
      <leafValues>
        3.8443428277969360e-01 -4.0714234113693237e-02</leafValues></_>
    <_>
      <internalNodes>
        0 -1 1306 -2.3544112220406532e-02</internalNodes>
      <leafValues>
        1.9838143885135651e-01 -7.2388187050819397e-02</leafValues></_>
    <_>
      <internalNodes>
        0 -1 79009 3.3201458863914013e-03</internalNodes>
      <leafValues>
        5.3916536271572113e-02 -2.9286125302314758e-01</leafValues></_>
    <_>
      <internalNodes>
        0 -1 132587 -7.4275834485888481e-03</internalNodes>
      <leafValues>
        3.8188108801841736e-01 -4.3636515736579895e-02</leafValues></_>
    <_>
      <internalNodes>
        0 -1 7431 2.0715694874525070e-02</internalNodes>
      <leafValues>
        2.6509007439017296e-02 -6.1180937290191650e-01</leafValues></_>
    <_>
      <internalNodes>
        0 -1 132946 1.8997819279320538e-04</internalNodes>
      <leafValues>
        -1.1296058446168900e-01 1.2808810174465179e-01</leafValues></_>
    <_>
      <internalNodes>
        0 -1 114297 -6.7081168526783586e-04</internalNodes>
      <leafValues>
        -1.9672285020351410e-01 7.9097948968410492e-02</leafValues></_>
    <_>
      <internalNodes>
        0 -1 154644 6.1984967032913119e-05</internalNodes>
      <leafValues>
        -1.1922871321439743e-01 1.1753209680318832e-01</leafValues></_>
    <_>
      <internalNodes>
        0 -1 68283 -1.3057382777333260e-02</internalNodes>
      <leafValues>
        6.1192053556442261e-01 -2.3797990754246712e-02</leafValues></_>
    <_>
      <internalNodes>
        0 -1 26808 -6.7907467018812895e-04</internalNodes>
      <leafValues>
        -3.4641239047050476e-01 4.4363953173160553e-02</leafValues></_>
    <_>
      <internalNodes>
        0 -1 88808 1.7184868920594454e-03</internalNodes>
      <leafValues>
        -6.1031676828861237e-02 2.5037467479705811e-01</leafValues></_>
    <_>
      <internalNodes>
        0 -1 79892 3.0953844543546438e-05</internalNodes>
      <leafValues>
        -1.2478361278772354e-01 1.3356082141399384e-01</leafValues></_>
    <_>
      <internalNodes>
        0 -1 7951 8.3594672381877899e-02</internalNodes>
      <leafValues>
        3.8972146809101105e-02 -4.3277707695960999e-01</leafValues></_>
    <_>
      <internalNodes>
        0 -1 1107 -1.1378061026334763e-04</internalNodes>
      <leafValues>
        -1.7993609607219696e-01 7.6889432966709137e-02</leafValues></_>
    <_>
      <internalNodes>
        0 -1 147709 5.5791991762816906e-03</internalNodes>
      <leafValues>
        -3.9223454892635345e-02 3.9270237088203430e-01</leafValues></_>
    <_>
      <internalNodes>
        0 -1 147454 -1.4135004021227360e-03</internalNodes>
      <leafValues>
        1.4871875941753387e-01 -9.9755778908729553e-02</leafValues></_>
    <_>
      <internalNodes>
        0 -1 94271 -3.1410052906721830e-04</internalNodes>
      <leafValues>
        1.4164659380912781e-01 -1.0735873132944107e-01</leafValues></_>
    <_>
      <internalNodes>
        0 -1 49399 1.0009149555116892e-03</internalNodes>
      <leafValues>
        7.1292415261268616e-02 -2.2624772787094116e-01</leafValues></_>
    <_>
      <internalNodes>
        0 -1 25776 5.0372909754514694e-03</internalNodes>
      <leafValues>
        -6.0771249234676361e-02 2.5248673558235168e-01</leafValues></_>
    <_>
      <internalNodes>
        0 -1 406 -1.0773690417408943e-02</internalNodes>
      <leafValues>
        3.4186848998069763e-01 -4.0898047387599945e-02</leafValues></_>
    <_>
      <internalNodes>
        0 -1 106427 -3.7402451038360596e-02</internalNodes>
      <leafValues>
        3.0512648820877075e-01 -4.4292014092206955e-02</leafValues></_>
    <_>
      <internalNodes>
        0 -1 162334 -1.3479244662448764e-03</internalNodes>
      <leafValues>
        -3.8903290033340454e-01 3.9255190640687943e-02</leafValues></_>
    <_>
      <internalNodes>
        0 -1 154825 4.8663476482033730e-03</internalNodes>
      <leafValues>
        -8.8631644845008850e-02 1.6677515208721161e-01</leafValues></_>
    <_>
      <internalNodes>
        0 -1 138751 -5.0048027187585831e-03</internalNodes>
      <leafValues>
        -2.7736350893974304e-01 5.1889739930629730e-02</leafValues></_>
    <_>
      <internalNodes>
        0 -1 152311 7.8938966908026487e-05</internalNodes>
      <leafValues>
        -1.1802655458450317e-01 1.2175559997558594e-01</leafValues></_>
    <_>
      <internalNodes>
        0 -1 25967 1.5470923972316086e-04</internalNodes>
      <leafValues>
        9.1762751340866089e-02 -1.5216514468193054e-01</leafValues></_>
    <_>
      <internalNodes>
        0 -1 82576 -4.4865280389785767e-02</internalNodes>
      <leafValues>
        3.6215344071388245e-01 -4.0315780788660049e-02</leafValues></_>
    <_>
      <internalNodes>
        0 -1 63902 -2.6323697529733181e-03</internalNodes>
      <leafValues>
        -2.6953265070915222e-01 5.2521742880344391e-02</leafValues></_>
    <_>
      <internalNodes>
        0 -1 34388 4.8346910625696182e-04</internalNodes>
      <leafValues>
        -6.7618936300277710e-02 2.1914023160934448e-01</leafValues></_></weakClassifiers></stage13>
</opencv_storage>
