<?xml version="1.0"?>
<opencv_storage>
<stage0>
  <maxWeakCount>19</maxWeakCount>
  <stageThreshold>-1.1723065376281738e+00</stageThreshold>
  <weakClassifiers>
    <_>
      <internalNodes>
        0 -1 14415 -5.2308088541030884e-01</internalNodes>
      <leafValues>
        -7.7006173133850098e-01 1.8352060019969940e-01</leafValues></_>
    <_>
      <internalNodes>
        0 -1 21241 -5.3807780146598816e-02</internalNodes>
      <leafValues>
        5.9546065330505371e-01 -1.9474014639854431e-01</leafValues></_>
    <_>
      <internalNodes>
        0 -1 77467 9.6057225018739700e-03</internalNodes>
      <leafValues>
        -1.5982793271541595e-01 4.6340519189834595e-01</leafValues></_>
    <_>
      <internalNodes>
        0 -1 123717 3.5296648740768433e-02</internalNodes>
      <leafValues>
        -1.5366291999816895e-01 4.4588521122932434e-01</leafValues></_>
    <_>
      <internalNodes>
        0 -1 22268 3.7124049849808216e-03</internalNodes>
      <leafValues>
        -1.7748172581195831e-01 3.5011953115463257e-01</leafValues></_>
    <_>
      <internalNodes>
        0 -1 97101 -6.2633864581584930e-04</internalNodes>
      <leafValues>
        4.4875466823577881e-01 -8.0685913562774658e-02</leafValues></_>
    <_>
      <internalNodes>
        0 -1 27668 -1.0003702715039253e-02</internalNodes>
      <leafValues>
        -6.3791710138320923e-01 7.8593440353870392e-02</leafValues></_>
    <_>
      <internalNodes>
        0 -1 3114 -1.2706985697150230e-02</internalNodes>
      <leafValues>
        -6.3496094942092896e-01 7.7809259295463562e-02</leafValues></_>
    <_>
      <internalNodes>
        0 -1 119302 1.0453658178448677e-03</internalNodes>
      <leafValues>
        -1.6090762615203857e-01 4.3912678956985474e-01</leafValues></_>
    <_>
      <internalNodes>
        0 -1 27386 3.4549362026154995e-03</internalNodes>
      <leafValues>
        1.5591868758201599e-01 -4.3473863601684570e-01</leafValues></_>
    <_>
      <internalNodes>
        0 -1 119302 -8.0161704681813717e-04</internalNodes>
      <leafValues>
        4.1262698173522949e-01 -1.6290245950222015e-01</leafValues></_>
    <_>
      <internalNodes>
        0 -1 124733 1.3196534710004926e-03</internalNodes>
      <leafValues>
        -1.1835982650518417e-01 3.7924686074256897e-01</leafValues></_>
    <_>
      <internalNodes>
        0 -1 146786 -4.8290029168128967e-02</internalNodes>
      <leafValues>
        5.1483517885208130e-01 -8.9338116347789764e-02</leafValues></_>
    <_>
      <internalNodes>
        0 -1 17240 1.6233252361416817e-02</internalNodes>
      <leafValues>
        1.0853245854377747e-01 -6.8685960769653320e-01</leafValues></_>
    <_>
      <internalNodes>
        0 -1 13276 -4.8664407804608345e-03</internalNodes>
      <leafValues>
        -4.3561246991157532e-01 7.8532226383686066e-02</leafValues></_>
    <_>
      <internalNodes>
        0 -1 10183 -1.6111234202980995e-02</internalNodes>
      <leafValues>
        3.4589657187461853e-01 -1.3689573109149933e-01</leafValues></_>
    <_>
      <internalNodes>
        0 -1 37442 1.8393551930785179e-02</internalNodes>
      <leafValues>
        9.4186261296272278e-02 -6.5154325962066650e-01</leafValues></_>
    <_>
      <internalNodes>
        0 -1 104403 -1.1227361392229795e-03</internalNodes>
      <leafValues>
        3.1353062391281128e-01 -1.7203795909881592e-01</leafValues></_>
    <_>
      <internalNodes>
        0 -1 158647 -1.4406850095838308e-03</internalNodes>
      <leafValues>
        -3.5951277613639832e-01 1.4448925852775574e-01</leafValues></_></weakClassifiers></stage0>
</opencv_storage>
